<?xml version="1.0"?>
<opencv_storage>
<cascade>
  <stageType>BOOST</stageType>
  <featureType>HAAR</featureType>
  <height>24</height>
  <width>24</width>
  <stageParams>
    <boostType>GAB</boostType>
    <minHitRate>9.9500000476837158e-01</minHitRate>
    <maxFalseAlarm>5.0000000000000000e-01</maxFalseAlarm>
    <weightTrimRate>9.4999998807907104e-01</weightTrimRate>
    <maxDepth>1</maxDepth>
    <maxWeakCount>100</maxWeakCount></stageParams>
  <featureParams>
    <maxCatCount>0</maxCatCount>
    <featSize>1</featSize>
    <mode>BASIC</mode></featureParams>
  <stageNum>12</stageNum>
  <stages>
    <!-- stage 0 -->
    <_>
      <maxWeakCount>6</maxWeakCount>
      <stageThreshold>-1.3069303035736084e+00</stageThreshold>
      <weakClassifiers>
        <_>
          <internalNodes>
            0 -1 101 5.6790329515933990e-02</internalNodes>
          <leafValues>
            -7.0996975898742676e-01 6.0530191659927368e-01</leafValues></_>
        <_>
          <internalNodes>
            0 -1 29 1.6848390921950340e-02</internalNodes>
          <leafValues>
            -4.5126664638519287e-01 6.9926184415817261e-01</leafValues></_>
        <_>
          <internalNodes>
            0 -1 83 -4.0923796594142914e-02</internalNodes>
          <leafValues>
            7.7448278665542603e-01 -2.3768118023872375e-01</leafValues></_>
        <_>
          <internalNodes>
            0 -1 116 1.0654296725988388e-02</internalNodes>
          <leafValues>
            -2.5680911540985107e-01 6.8733495473861694e-01</leafValues></_>
        <_>
          <internalNodes>
            0 -1 39 8.9182272553443909e-02</internalNodes>
          <leafValues>
            -2.4837270379066467e-01 7.1574598550796509e-01</leafValues></_>
        <_>
          <internalNodes>
            0 -1 88 9.3492548912763596e-03</internalNodes>
          <leafValues>
            -3.6694952845573425e-01 6.5786755084991455e-01</leafValues></_></weakClassifiers></_>
    <!-- stage 1 -->
    <_>
      <maxWeakCount>7</maxWeakCount>
      <stageThreshold>-1.2041988372802734e+00</stageThreshold>
      <weakClassifiers>
        <_>
          <internalNodes>
            0 -1 78 3.4492291510105133e-02</internalNodes>
          <leafValues>
            -4.5120552182197571e-01 7.1063828468322754e-01</leafValues></_>
        <_>
          <internalNodes>
            0 -1 55 1.8829982727766037e-02</internalNodes>
          <leafValues>
            -5.9970635175704956e-01 5.4858696460723877e-01</leafValues></_>
        <_>
          <internalNodes>
            0 -1 71 -3.8058314472436905e-02</internalNodes>
          <leafValues>
            3.4621396660804749e-01 -5.9023594856262207e-01</leafValues></_>
        <_>
          <internalNodes>
            0 -1 9 -4.9949388951063156e-02</internalNodes>
          <leafValues>
            3.5603287816047668e-01 -4.7830069065093994e-01</leafValues></_>
        <_>
          <internalNodes>
            0 -1 77 3.1434299889951944e-03</internalNodes>
          <leafValues>
            -2.5561466813087463e-01 6.0691422224044800e-01</leafValues></_>
        <_>
          <internalNodes>
            0 -1 61 -6.4019247889518738e-02</internalNodes>
          <leafValues>
            6.3233458995819092e-01 -2.5042271614074707e-01</leafValues></_>
        <_>
          <internalNodes>
            0 -1 64 4.1542436927556992e-02</internalNodes>
          <leafValues>
            -2.9580378532409668e-01 5.6325852870941162e-01</leafValues></_></weakClassifiers></_>
    <!-- stage 2 -->
    <_>
      <maxWeakCount>8</maxWeakCount>
      <stageThreshold>-1.0125558376312256e+00</stageThreshold>
      <weakClassifiers>
        <_>
          <internalNodes>
            0 -1 27 7.0864543318748474e-02</internalNodes>
          <leafValues>
            -4.4779583811759949e-01 6.8267226219177246e-01</leafValues></_>
        <_>
          <internalNodes>
            0 -1 74 2.1318476647138596e-02</internalNodes>
          <leafValues>
            -4.3247982859611511e-01 4.8145341873168945e-01</leafValues></_>
        <_>
          <internalNodes>
            0 -1 73 -7.9050585627555847e-03</internalNodes>
          <leafValues>
            -7.2365021705627441e-01 2.2930461168289185e-01</leafValues></_>
        <_>
          <internalNodes>
            0 -1 68 9.8152130842208862e-02</internalNodes>
          <leafValues>
            -2.3919516801834106e-01 7.1657043695449829e-01</leafValues></_>
        <_>
          <internalNodes>
            0 -1 45 6.3913598656654358e-02</internalNodes>
          <leafValues>
            -2.5529924035072327e-01 6.6242277622222900e-01</leafValues></_>
        <_>
          <internalNodes>
            0 -1 60 -2.3711960762739182e-02</internalNodes>
          <leafValues>
            6.7442303895950317e-01 -1.6598697006702423e-01</leafValues></_>
        <_>
          <internalNodes>
            0 -1 6 -5.2064947783946991e-02</internalNodes>
          <leafValues>
            6.5576660633087158e-01 -2.0400832593441010e-01</leafValues></_>
        <_>
          <internalNodes>
            0 -1 152 2.3137085139751434e-02</internalNodes>
          <leafValues>
            -1.5510988235473633e-01 5.9608483314514160e-01</leafValues></_></weakClassifiers></_>
    <!-- stage 3 -->
    <_>
      <maxWeakCount>11</maxWeakCount>
      <stageThreshold>-9.1710090637207031e-01</stageThreshold>
      <weakClassifiers>
        <_>
          <internalNodes>
            0 -1 59 1.3271218538284302e-01</internalNodes>
          <leafValues>
            -3.8121548295021057e-01 6.5596330165863037e-01</leafValues></_>
        <_>
          <internalNodes>
            0 -1 127 -8.8611189275979996e-03</internalNodes>
          <leafValues>
            6.0649830102920532e-01 -2.4749296903610229e-01</leafValues></_>
        <_>
          <internalNodes>
            0 -1 67 2.0654555410146713e-02</internalNodes>
          <leafValues>
            -2.6268547773361206e-01 5.1958590745925903e-01</leafValues></_>
        <_>
          <internalNodes>
            0 -1 63 1.5716463327407837e-02</internalNodes>
          <leafValues>
            -4.8377573490142822e-01 2.7015882730484009e-01</leafValues></_>
        <_>
          <internalNodes>
            0 -1 52 -1.5967085957527161e-02</internalNodes>
          <leafValues>
            5.0514775514602661e-01 -2.6579943299293518e-01</leafValues></_>
        <_>
          <internalNodes>
            0 -1 89 1.5280328691005707e-02</internalNodes>
          <leafValues>
            -2.5728526711463928e-01 4.7610768675804138e-01</leafValues></_>
        <_>
          <internalNodes>
            0 -1 94 -9.4092756626196206e-05</internalNodes>
          <leafValues>
            -4.5757275819778442e-01 2.6178130507469177e-01</leafValues></_>
        <_>
          <internalNodes>
            0 -1 33 1.3339249417185783e-02</internalNodes>
          <leafValues>
            -2.4011299014091492e-01 5.2214473485946655e-01</leafValues></_>
        <_>
          <internalNodes>
            0 -1 146 -1.1784060006903019e-05</internalNodes>
          <leafValues>
            3.2078155875205994e-01 -3.4727245569229126e-01</leafValues></_>
        <_>
          <internalNodes>
            0 -1 90 1.3215260580182076e-02</internalNodes>
          <leafValues>
            -2.8966385126113892e-01 4.5102390646934509e-01</leafValues></_>
        <_>
          <internalNodes>
            0 -1 157 1.2844517186749727e-04</internalNodes>
          <leafValues>
            1.9497446715831757e-01 -5.0912934541702271e-01</leafValues></_></weakClassifiers></_>
    <!-- stage 4 -->
    <_>
      <maxWeakCount>13</maxWeakCount>
      <stageThreshold>-1.0010110139846802e+00</stageThreshold>
      <weakClassifiers>
        <_>
          <internalNodes>
            0 -1 59 1.3508063554763794e-01</internalNodes>
          <leafValues>
            -3.7555554509162903e-01 6.3265305757522583e-01</leafValues></_>
        <_>
          <internalNodes>
            0 -1 112 -1.8689641728997231e-02</internalNodes>
          <leafValues>
            5.0524812936782837e-01 -3.1128323078155518e-01</leafValues></_>
        <_>
          <internalNodes>
            0 -1 32 2.6691414415836334e-02</internalNodes>
          <leafValues>
            -3.8385269045829773e-01 3.4465265274047852e-01</leafValues></_>
        <_>
          <internalNodes>
            0 -1 57 1.0830339789390564e-01</internalNodes>
          <leafValues>
            -2.7458390593528748e-01 4.4434490799903870e-01</leafValues></_>
        <_>
          <internalNodes>
            0 -1 143 6.5421257168054581e-03</internalNodes>
          <leafValues>
            -1.8392725288867950e-01 4.6140927076339722e-01</leafValues></_>
        <_>
          <internalNodes>
            0 -1 102 4.6533076092600822e-03</internalNodes>
          <leafValues>
            -3.8406345248222351e-01 2.0968352258205414e-01</leafValues></_>
        <_>
          <internalNodes>
            0 -1 141 2.7512593078427017e-05</internalNodes>
          <leafValues>
            -3.0134534835815430e-01 2.7590817213058472e-01</leafValues></_>
        <_>
          <internalNodes>
            0 -1 97 -2.3038177751004696e-03</internalNodes>
          <leafValues>
            3.1663936376571655e-01 -2.7130877971649170e-01</leafValues></_>
        <_>
          <internalNodes>
            0 -1 3 2.3790344595909119e-02</internalNodes>
          <leafValues>
            -4.4508597254753113e-01 2.0223133265972137e-01</leafValues></_>
        <_>
          <internalNodes>
            0 -1 4 4.4021420180797577e-03</internalNodes>
          <leafValues>
            1.8561446666717529e-01 -5.1759320497512817e-01</leafValues></_>
        <_>
          <internalNodes>
            0 -1 86 -3.2771527767181396e-02</internalNodes>
          <leafValues>
            -7.2628730535507202e-01 9.5388047397136688e-02</leafValues></_>
        <_>
          <internalNodes>
            0 -1 138 -1.1251926480326802e-05</internalNodes>
          <leafValues>
            2.4602343142032623e-01 -3.7674042582511902e-01</leafValues></_>
        <_>
          <internalNodes>
            0 -1 156 -2.5653011107351631e-05</internalNodes>
          <leafValues>
            2.5507494807243347e-01 -3.7563860416412354e-01</leafValues></_></weakClassifiers></_>
    <!-- stage 5 -->
    <_>
      <maxWeakCount>14</maxWeakCount>
      <stageThreshold>-1.1409261226654053e+00</stageThreshold>
      <weakClassifiers>
        <_>
          <internalNodes>
            0 -1 48 7.9974427819252014e-02</internalNodes>
          <leafValues>
            -3.7267759442329407e-01 6.6197180747985840e-01</leafValues></_>
        <_>
          <internalNodes>
            0 -1 13 4.7557160258293152e-02</internalNodes>
          <leafValues>
            -1.9855199754238129e-01 5.8324837684631348e-01</leafValues></_>
        <_>
          <internalNodes>
            0 -1 47 1.8890518695116043e-02</internalNodes>
          <leafValues>
            -2.4584849178791046e-01 3.9419415593147278e-01</leafValues></_>
        <_>
          <internalNodes>
            0 -1 142 -1.9223806157242507e-04</internalNodes>
          <leafValues>
            -4.6411946415901184e-01 2.0850689709186554e-01</leafValues></_>
        <_>
          <internalNodes>
            0 -1 50 4.6018969267606735e-02</internalNodes>
          <leafValues>
            -3.0085155367851257e-01 3.7732759118080139e-01</leafValues></_>
        <_>
          <internalNodes>
            0 -1 96 -5.6535669136792421e-04</internalNodes>
          <leafValues>
            -4.9931484460830688e-01 2.1272610127925873e-01</leafValues></_>
        <_>
          <internalNodes>
            0 -1 161 4.8592139501124620e-04</internalNodes>
          <leafValues>
            2.8270244598388672e-01 -4.2224949598312378e-01</leafValues></_>
        <_>
          <internalNodes>
            0 -1 66 5.8698263019323349e-03</internalNodes>
          <leafValues>
            -4.8476287722587585e-01 2.2024358808994293e-01</leafValues></_>
        <_>
          <internalNodes>
            0 -1 7 4.1825041174888611e-02</internalNodes>
          <leafValues>
            1.2631435692310333e-01 -7.6723694801330566e-01</leafValues></_>
        <_>
          <internalNodes>
            0 -1 18 -3.5843566060066223e-02</internalNodes>
          <leafValues>
            -6.1200046539306641e-01 1.0918418318033218e-01</leafValues></_>
        <_>
          <internalNodes>
            0 -1 91 8.1753805279731750e-02</internalNodes>
          <leafValues>
            -2.0781533420085907e-01 4.2325425148010254e-01</leafValues></_>
        <_>
          <internalNodes>
            0 -1 11 2.0729241077788174e-04</internalNodes>
          <leafValues>
            1.9730232656002045e-01 -4.7203755378723145e-01</leafValues></_>
        <_>
          <internalNodes>
            0 -1 160 -1.2507115025073290e-03</internalNodes>
          <leafValues>
            -5.6000840663909912e-01 1.6916382312774658e-01</leafValues></_>
        <_>
          <internalNodes>
            0 -1 133 -9.5893279649317265e-05</internalNodes>
          <leafValues>
            -3.7383669614791870e-01 2.3317663371562958e-01</leafValues></_></weakClassifiers></_>
    <!-- stage 6 -->
    <_>
      <maxWeakCount>14</maxWeakCount>
      <stageThreshold>-9.6146780252456665e-01</stageThreshold>
      <weakClassifiers>
        <_>
          <internalNodes>
            0 -1 147 -1.7970919609069824e-02</internalNodes>
          <leafValues>
            6.7192429304122925e-01 -2.6562500000000000e-01</leafValues></_>
        <_>
          <internalNodes>
            0 -1 134 1.7259188462048769e-04</internalNodes>
          <leafValues>
            2.2912847995758057e-01 -5.5954569578170776e-01</leafValues></_>
        <_>
          <internalNodes>
            0 -1 136 -9.2020112788304687e-05</internalNodes>
          <leafValues>
            -4.4306245446205139e-01 2.3773582279682159e-01</leafValues></_>
        <_>
          <internalNodes>
            0 -1 124 9.6744974143803120e-05</internalNodes>
          <leafValues>
            1.8624694645404816e-01 -5.2448028326034546e-01</leafValues></_>
        <_>
          <internalNodes>
            0 -1 98 -3.7587378174066544e-03</internalNodes>
          <leafValues>
            4.1159346699714661e-01 -2.1483041346073151e-01</leafValues></_>
        <_>
          <internalNodes>
            0 -1 28 3.0183859169483185e-02</internalNodes>
          <leafValues>
            -1.6245031356811523e-01 5.9540164470672607e-01</leafValues></_>
        <_>
          <internalNodes>
            0 -1 20 -3.9566092193126678e-02</internalNodes>
          <leafValues>
            5.3695040941238403e-01 -1.7370404303073883e-01</leafValues></_>
        <_>
          <internalNodes>
            0 -1 162 2.5875552091747522e-04</internalNodes>
          <leafValues>
            1.9465062022209167e-01 -5.1593959331512451e-01</leafValues></_>
        <_>
          <internalNodes>
            0 -1 144 -3.0829629395157099e-03</internalNodes>
          <leafValues>
            2.2485776245594025e-01 -3.0058297514915466e-01</leafValues></_>
        <_>
          <internalNodes>
            0 -1 145 5.5647986009716988e-03</internalNodes>
          <leafValues>
            -1.7569100856781006e-01 4.6635830402374268e-01</leafValues></_>
        <_>
          <internalNodes>
            0 -1 2 -2.0636761188507080e-01</internalNodes>
          <leafValues>
            -9.3600231409072876e-01 9.2571489512920380e-02</leafValues></_>
        <_>
          <internalNodes>
            0 -1 14 5.3979002404958010e-04</internalNodes>
          <leafValues>
            1.3655884563922882e-01 -5.2268564701080322e-01</leafValues></_>
        <_>
          <internalNodes>
            0 -1 1 -5.4490631446242332e-03</internalNodes>
          <leafValues>
            -6.5586817264556885e-01 1.0235566645860672e-01</leafValues></_>
        <_>
          <internalNodes>
            0 -1 30 8.1886555999517441e-03</internalNodes>
          <leafValues>
            1.2612874805927277e-01 -5.3559577465057373e-01</leafValues></_></weakClassifiers></_>
    <!-- stage 7 -->
    <_>
      <maxWeakCount>18</maxWeakCount>
      <stageThreshold>-1.1478413343429565e+00</stageThreshold>
      <weakClassifiers>
        <_>
          <internalNodes>
            0 -1 40 7.6199144124984741e-02</internalNodes>
          <leafValues>
            -3.6585366725921631e-01 4.6257197856903076e-01</leafValues></_>
        <_>
          <internalNodes>
            0 -1 16 -1.7332237213850021e-02</internalNodes>
          <leafValues>
            4.9630841612815857e-01 -2.4363762140274048e-01</leafValues></_>
        <_>
          <internalNodes>
            0 -1 126 -7.0645962841808796e-04</internalNodes>
          <leafValues>
            -4.3691799044609070e-01 2.0610424876213074e-01</leafValues></_>
        <_>
          <internalNodes>
            0 -1 53 1.5356339514255524e-02</internalNodes>
          <leafValues>
            -1.8789002299308777e-01 3.6963316798210144e-01</leafValues></_>
        <_>
          <internalNodes>
            0 -1 46 1.6381399706006050e-02</internalNodes>
          <leafValues>
            -2.9250803589820862e-01 3.1190362572669983e-01</leafValues></_>
        <_>
          <internalNodes>
            0 -1 122 -1.1721656846930273e-05</internalNodes>
          <leafValues>
            2.3015126585960388e-01 -3.5262438654899597e-01</leafValues></_>
        <_>
          <internalNodes>
            0 -1 104 1.2639334425330162e-02</internalNodes>
          <leafValues>
            -2.4827671051025391e-01 4.7024399042129517e-01</leafValues></_>
        <_>
          <internalNodes>
            0 -1 109 8.1277699791826308e-05</internalNodes>
          <leafValues>
            2.5217494368553162e-01 -3.6902734637260437e-01</leafValues></_>
        <_>
          <internalNodes>
            0 -1 111 -7.9994504631031305e-05</internalNodes>
          <leafValues>
            -5.2196419239044189e-01 1.2972655892372131e-01</leafValues></_>
        <_>
          <internalNodes>
            0 -1 87 6.0221524909138680e-03</internalNodes>
          <leafValues>
            -2.7384662628173828e-01 2.4991536140441895e-01</leafValues></_>
        <_>
          <internalNodes>
            0 -1 128 1.5005845576524734e-02</internalNodes>
          <leafValues>
            -1.8008932471275330e-01 4.3785223364830017e-01</leafValues></_>
        <_>
          <internalNodes>
            0 -1 22 -1.4149770140647888e-01</internalNodes>
          <leafValues>
            5.7665824890136719e-01 -1.1221352219581604e-01</leafValues></_>
        <_>
          <internalNodes>
            0 -1 25 3.6051712930202484e-02</internalNodes>
          <leafValues>
            -2.5412768125534058e-01 2.8226217627525330e-01</leafValues></_>
        <_>
          <internalNodes>
            0 -1 10 9.7087100148200989e-02</internalNodes>
          <leafValues>
            1.0837885737419128e-01 -5.5277317762374878e-01</leafValues></_>
        <_>
          <internalNodes>
            0 -1 49 2.4070447683334351e-01</internalNodes>
          <leafValues>
            -1.2290151417255402e-01 5.0882321596145630e-01</leafValues></_>
        <_>
          <internalNodes>
            0 -1 41 -3.5248696804046631e-02</internalNodes>
          <leafValues>
            3.9659497141838074e-01 -2.5435549020767212e-01</leafValues></_>
        <_>
          <internalNodes>
            0 -1 151 1.8827244639396667e-02</internalNodes>
          <leafValues>
            -1.2283653020858765e-01 4.4353610277175903e-01</leafValues></_>
        <_>
          <internalNodes>
            0 -1 36 3.4169841092079878e-03</internalNodes>
          <leafValues>
            -1.8514367938041687e-01 3.2174253463745117e-01</leafValues></_></weakClassifiers></_>
    <!-- stage 8 -->
    <_>
      <maxWeakCount>19</maxWeakCount>
      <stageThreshold>-1.2075628042221069e+00</stageThreshold>
      <weakClassifiers>
        <_>
          <internalNodes>
            0 -1 75 -3.7830539047718048e-02</internalNodes>
          <leafValues>
            5.2488690614700317e-01 -3.2369297742843628e-01</leafValues></_>
        <_>
          <internalNodes>
            0 -1 21 1.2129107490181923e-02</internalNodes>
          <leafValues>
            -3.8110148906707764e-01 2.6608744263648987e-01</leafValues></_>
        <_>
          <internalNodes>
            0 -1 81 -4.9205176532268524e-02</internalNodes>
          <leafValues>
            2.8214991092681885e-01 -3.2944467663764954e-01</leafValues></_>
        <_>
          <internalNodes>
            0 -1 8 5.5968563538044691e-04</internalNodes>
          <leafValues>
            1.1869892477989197e-01 -6.5409499406814575e-01</leafValues></_>
        <_>
          <internalNodes>
            0 -1 58 4.5074429363012314e-03</internalNodes>
          <leafValues>
            -4.7141745686531067e-01 1.3833859562873840e-01</leafValues></_>
        <_>
          <internalNodes>
            0 -1 115 3.9343349635601044e-02</internalNodes>
          <leafValues>
            -3.1656125187873840e-01 2.2044456005096436e-01</leafValues></_>
        <_>
          <internalNodes>
            0 -1 34 -1.8754130229353905e-02</internalNodes>
          <leafValues>
            5.8984231948852539e-01 -1.8859431147575378e-01</leafValues></_>
        <_>
          <internalNodes>
            0 -1 19 -6.2300164252519608e-02</internalNodes>
          <leafValues>
            -6.8843090534210205e-01 1.6690590977668762e-01</leafValues></_>
        <_>
          <internalNodes>
            0 -1 149 -3.5960208624601364e-03</internalNodes>
          <leafValues>
            3.6051800847053528e-01 -2.2258456051349640e-01</leafValues></_>
        <_>
          <internalNodes>
            0 -1 38 -3.9023619145154953e-02</internalNodes>
          <leafValues>
            3.4874925017356873e-01 -1.9006727635860443e-01</leafValues></_>
        <_>
          <internalNodes>
            0 -1 70 6.2649312894791365e-04</internalNodes>
          <leafValues>
            -2.9052576422691345e-01 2.4377959966659546e-01</leafValues></_>
        <_>
          <internalNodes>
            0 -1 15 3.9138242602348328e-02</internalNodes>
          <leafValues>
            9.7296945750713348e-02 -7.5163018703460693e-01</leafValues></_>
        <_>
          <internalNodes>
            0 -1 57 1.7078901827335358e-01</internalNodes>
          <leafValues>
            -1.3585488498210907e-01 5.6585627794265747e-01</leafValues></_>
        <_>
          <internalNodes>
            0 -1 5 1.2584316730499268e-01</internalNodes>
          <leafValues>
            8.9918509125709534e-02 -8.5234820842742920e-01</leafValues></_>
        <_>
          <internalNodes>
            0 -1 158 -1.1191237717866898e-04</internalNodes>
          <leafValues>
            -4.4093999266624451e-01 1.2957841157913208e-01</leafValues></_>
        <_>
          <internalNodes>
            0 -1 113 -6.8533099256455898e-03</internalNodes>
          <leafValues>
            -4.8043668270111084e-01 1.4304475486278534e-01</leafValues></_>
        <_>
          <internalNodes>
            0 -1 110 -6.7505310289561749e-04</internalNodes>
          <leafValues>
            -4.0213689208030701e-01 1.5063917636871338e-01</leafValues></_>
        <_>
          <internalNodes>
            0 -1 120 -5.4793461458757520e-05</internalNodes>
          <leafValues>
            1.9753797352313995e-01 -3.3421882987022400e-01</leafValues></_>
        <_>
          <internalNodes>
            0 -1 37 -1.8895911052823067e-03</internalNodes>
          <leafValues>
            5.3569191694259644e-01 -1.3776534795761108e-01</leafValues></_></weakClassifiers></_>
    <!-- stage 9 -->
    <_>
      <maxWeakCount>18</maxWeakCount>
      <stageThreshold>-1.0481313467025757e+00</stageThreshold>
      <weakClassifiers>
        <_>
          <internalNodes>
            0 -1 106 3.0703734606504440e-02</internalNodes>
          <leafValues>
            -4.1104295849800110e-01 3.0333817005157471e-01</leafValues></_>
        <_>
          <internalNodes>
            0 -1 95 -4.4987362343817949e-04</internalNodes>
          <leafValues>
            -4.8975524306297302e-01 2.2233450412750244e-01</leafValues></_>
        <_>
          <internalNodes>
            0 -1 60 -2.2638248279690742e-02</internalNodes>
          <leafValues>
            3.7199574708938599e-01 -2.4664773046970367e-01</leafValues></_>
        <_>
          <internalNodes>
            0 -1 107 -1.2374307516438421e-05</internalNodes>
          <leafValues>
            2.9396876692771912e-01 -3.3644941449165344e-01</leafValues></_>
        <_>
          <internalNodes>
            0 -1 51 1.3637156784534454e-01</internalNodes>
          <leafValues>
            -1.5298938751220703e-01 6.8218904733657837e-01</leafValues></_>
        <_>
          <internalNodes>
            0 -1 133 -1.0808139631990343e-04</internalNodes>
          <leafValues>
            -3.3605641126632690e-01 2.0308755338191986e-01</leafValues></_>
        <_>
          <internalNodes>
            0 -1 42 1.3548037037253380e-02</internalNodes>
          <leafValues>
            -2.5800207257270813e-01 3.0289894342422485e-01</leafValues></_>
        <_>
          <internalNodes>
            0 -1 140 1.7277315258979797e-02</internalNodes>
          <leafValues>
            -2.3420810699462891e-01 3.6421525478363037e-01</leafValues></_>
        <_>
          <internalNodes>
            0 -1 44 3.1914643943309784e-02</internalNodes>
          <leafValues>
            1.3279582560062408e-01 -5.5662769079208374e-01</leafValues></_>
        <_>
          <internalNodes>
            0 -1 12 -4.1633797809481621e-04</internalNodes>
          <leafValues>
            -5.2938783168792725e-01 1.4291937649250031e-01</leafValues></_>
        <_>
          <internalNodes>
            0 -1 72 5.8034551329910755e-03</internalNodes>
          <leafValues>
            -9.7176969051361084e-02 6.4002972841262817e-01</leafValues></_>
        <_>
          <internalNodes>
            0 -1 130 3.9483010768890381e-02</internalNodes>
          <leafValues>
            -7.4964083731174469e-02 7.2800832986831665e-01</leafValues></_>
        <_>
          <internalNodes>
            0 -1 54 1.4354598242789507e-03</internalNodes>
          <leafValues>
            -1.5094545483589172e-01 4.1497653722763062e-01</leafValues></_>
        <_>
          <internalNodes>
            0 -1 155 -1.4931218698620796e-02</internalNodes>
          <leafValues>
            -5.2171289920806885e-01 1.1746538430452347e-01</leafValues></_>
        <_>
          <internalNodes>
            0 -1 159 9.1623427579179406e-04</internalNodes>
          <leafValues>
            1.3842758536338806e-01 -4.5181462168693542e-01</leafValues></_>
        <_>
          <internalNodes>
            0 -1 119 3.6280624044593424e-05</internalNodes>
          <leafValues>
            1.5469093620777130e-01 -3.9130437374114990e-01</leafValues></_>
        <_>
          <internalNodes>
            0 -1 65 -4.7646854072809219e-03</internalNodes>
          <leafValues>
            4.3273979425430298e-01 -1.6886606812477112e-01</leafValues></_>
        <_>
          <internalNodes>
            0 -1 131 4.3657035566866398e-03</internalNodes>
          <leafValues>
            -3.1264224648475647e-01 2.6688310503959656e-01</leafValues></_></weakClassifiers></_>
    <!-- stage 10 -->
    <_>
      <maxWeakCount>18</maxWeakCount>
      <stageThreshold>-1.0949480533599854e+00</stageThreshold>
      <weakClassifiers>
        <_>
          <internalNodes>
            0 -1 43 -3.4491837024688721e-02</internalNodes>
          <leafValues>
            4.5413869619369507e-01 -2.9306486248970032e-01</leafValues></_>
        <_>
          <internalNodes>
            0 -1 108 -2.1576898870989680e-04</internalNodes>
          <leafValues>
            -5.8451586961746216e-01 1.7068886756896973e-01</leafValues></_>
        <_>
          <internalNodes>
            0 -1 76 -5.7997838594019413e-03</internalNodes>
          <leafValues>
            4.9130433797836304e-01 -1.8310865759849548e-01</leafValues></_>
        <_>
          <internalNodes>
            0 -1 105 -1.1491731856949627e-04</internalNodes>
          <leafValues>
            3.1393048167228699e-01 -2.4329398572444916e-01</leafValues></_>
        <_>
          <internalNodes>
            0 -1 123 1.1421546514611691e-04</internalNodes>
          <leafValues>
            2.9361918568611145e-01 -2.9892224073410034e-01</leafValues></_>
        <_>
          <internalNodes>
            0 -1 0 -7.9651188571006060e-04</internalNodes>
          <leafValues>
            -5.7862937450408936e-01 9.4035580754280090e-02</leafValues></_>
        <_>
          <internalNodes>
            0 -1 117 -2.6341029297327623e-05</internalNodes>
          <leafValues>
            3.3318039774894714e-01 -2.1266077458858490e-01</leafValues></_>
        <_>
          <internalNodes>
            0 -1 17 1.5340004116296768e-02</internalNodes>
          <leafValues>
            -2.9025661945343018e-01 3.0638271570205688e-01</leafValues></_>
        <_>
          <internalNodes>
            0 -1 100 -3.8403021171689034e-03</internalNodes>
          <leafValues>
            4.3337512016296387e-01 -1.9865453243255615e-01</leafValues></_>
        <_>
          <internalNodes>
            0 -1 139 3.0731014907360077e-02</internalNodes>
          <leafValues>
            9.5583386719226837e-02 -8.3364242315292358e-01</leafValues></_>
        <_>
          <internalNodes>
            0 -1 99 -4.9378662370145321e-03</internalNodes>
          <leafValues>
            -6.1999911069869995e-01 9.4534389674663544e-02</leafValues></_>
        <_>
          <internalNodes>
            0 -1 62 2.2579025244340301e-04</internalNodes>
          <leafValues>
            -3.0108171701431274e-01 2.2214838862419128e-01</leafValues></_>
        <_>
          <internalNodes>
            0 -1 31 -3.7623368203639984e-02</internalNodes>
          <leafValues>
            7.7011102437973022e-01 -1.1457552760839462e-01</leafValues></_>
        <_>
          <internalNodes>
            0 -1 103 5.2856057882308960e-02</internalNodes>
          <leafValues>
            -1.4914260804653168e-01 4.7282478213310242e-01</leafValues></_>
        <_>
          <internalNodes>
            0 -1 93 -2.8207494324306026e-05</internalNodes>
          <leafValues>
            2.3975597321987152e-01 -2.8135991096496582e-01</leafValues></_>
        <_>
          <internalNodes>
            0 -1 80 2.6350647211074829e-02</internalNodes>
          <leafValues>
            -2.7408373355865479e-01 3.4793066978454590e-01</leafValues></_>
        <_>
          <internalNodes>
            0 -1 56 1.1864291504025459e-02</internalNodes>
          <leafValues>
            -2.2415137290954590e-01 3.8629400730133057e-01</leafValues></_>
        <_>
          <internalNodes>
            0 -1 84 8.0182895064353943e-02</internalNodes>
          <leafValues>
            -3.4176784753799438e-01 2.3133991658687592e-01</leafValues></_></weakClassifiers></_>
    <!-- stage 11 -->
    <_>
      <maxWeakCount>21</maxWeakCount>
      <stageThreshold>-1.1974512338638306e+00</stageThreshold>
      <weakClassifiers>
        <_>
          <internalNodes>
            0 -1 121 -2.3738510208204389e-04</internalNodes>
          <leafValues>
            -7.0068025588989258e-01 1.4040113985538483e-01</leafValues></_>
        <_>
          <internalNodes>
            0 -1 23 -2.8922695666551590e-02</internalNodes>
          <leafValues>
            4.9482813477516174e-01 -2.4425972998142242e-01</leafValues></_>
        <_>
          <internalNodes>
            0 -1 85 -2.0150018855929375e-02</internalNodes>
          <leafValues>
            2.6694095134735107e-01 -3.3994650840759277e-01</leafValues></_>
        <_>
          <internalNodes>
            0 -1 137 -1.2185837840661407e-04</internalNodes>
          <leafValues>
            -3.4282559156417847e-01 2.4861308932304382e-01</leafValues></_>
        <_>
          <internalNodes>
            0 -1 129 1.2143990397453308e-01</internalNodes>
          <leafValues>
            7.4609577655792236e-02 -7.5473231077194214e-01</leafValues></_>
        <_>
          <internalNodes>
            0 -1 125 -4.2475912778172642e-05</internalNodes>
          <leafValues>
            1.8405370414257050e-01 -3.9655476808547974e-01</leafValues></_>
        <_>
          <internalNodes>
            0 -1 79 -6.6860944032669067e-02</internalNodes>
          <leafValues>
            4.0597289800643921e-01 -2.1661855280399323e-01</leafValues></_>
        <_>
          <internalNodes>
            0 -1 92 1.3713803887367249e-01</internalNodes>
          <leafValues>
            -1.6487061977386475e-01 4.0038326382637024e-01</leafValues></_>
        <_>
          <internalNodes>
            0 -1 114 -2.6066105812788010e-02</internalNodes>
          <leafValues>
            -7.8527802228927612e-01 8.0112144351005554e-02</leafValues></_>
        <_>
          <internalNodes>
            0 -1 150 3.5600757692009211e-03</internalNodes>
          <leafValues>
            -1.7546829581260681e-01 4.0982738137245178e-01</leafValues></_>
        <_>
          <internalNodes>
            0 -1 24 -1.7434025648981333e-03</internalNodes>
          <leafValues>
            -6.4545804262161255e-01 1.1239896714687347e-01</leafValues></_>
        <_>
          <internalNodes>
            0 -1 26 1.9504901021718979e-02</internalNodes>
          <leafValues>
            -1.4805357158184052e-01 4.8698595166206360e-01</leafValues></_>
        <_>
          <internalNodes>
            0 -1 35 -6.4020045101642609e-03</internalNodes>
          <leafValues>
            6.0496425628662109e-01 -8.8315032422542572e-02</leafValues></_>
        <_>
          <internalNodes>
            0 -1 69 -1.2660131324082613e-04</internalNodes>
          <leafValues>
            -3.3001488447189331e-01 2.0181570947170258e-01</leafValues></_>
        <_>
          <internalNodes>
            0 -1 148 -1.6204323619604111e-02</internalNodes>
          <leafValues>
            3.2096549868583679e-01 -1.9345475733280182e-01</leafValues></_>
        <_>
          <internalNodes>
            0 -1 132 -1.5506526688113809e-04</internalNodes>
          <leafValues>
            3.2017496228218079e-01 -2.0201081037521362e-01</leafValues></_>
        <_>
          <internalNodes>
            0 -1 135 -9.7372882009949535e-05</internalNodes>
          <leafValues>
            -4.3263402581214905e-01 1.4308869838714600e-01</leafValues></_>
        <_>
          <internalNodes>
            0 -1 153 4.3149746488779783e-05</internalNodes>
          <leafValues>
            -1.9574086368083954e-01 2.8324010968208313e-01</leafValues></_>
        <_>
          <internalNodes>
            0 -1 118 -1.7209840938448906e-02</internalNodes>
          <leafValues>
            1.6971470415592194e-01 -3.8218045234680176e-01</leafValues></_>
        <_>
          <internalNodes>
            0 -1 82 -2.4243872030638158e-04</internalNodes>
          <leafValues>
            -3.4671497344970703e-01 1.9974502921104431e-01</leafValues></_>
        <_>
          <internalNodes>
            0 -1 154 -2.9582006391137838e-05</internalNodes>
          <leafValues>
            2.4139086902141571e-01 -2.4178525805473328e-01</leafValues></_></weakClassifiers></_></stages>
  <features>
    <_>
      <rects>
        <_>
          0 0 1 4 -1.</_>
        <_>
          0 2 1 2 2.</_></rects>
      <tilted>0</tilted></_>
    <_>
      <rects>
        <_>
          0 0 1 10 -1.</_>
        <_>
          0 5 1 5 2.</_></rects>
      <tilted>0</tilted></_>
    <_>
      <rects>
        <_>
          0 0 24 9 -1.</_>
        <_>
          12 0 12 9 2.</_></rects>
      <tilted>0</tilted></_>
    <_>
      <rects>
        <_>
          0 3 14 10 -1.</_>
        <_>
          0 8 14 5 2.</_></rects>
      <tilted>0</tilted></_>
    <_>
      <rects>
        <_>
          0 5 1 12 -1.</_>
        <_>
          0 11 1 6 2.</_></rects>
      <tilted>0</tilted></_>
    <_>
      <rects>
        <_>
          0 5 22 12 -1.</_>
        <_>
          0 5 11 6 2.</_>
        <_>
          11 11 11 6 2.</_></rects>
      <tilted>0</tilted></_>
    <_>
      <rects>
        <_>
          0 6 9 10 -1.</_>
        <_>
          3 6 3 10 3.</_></rects>
      <tilted>0</tilted></_>
    <_>
      <rects>
        <_>
          0 9 24 2 -1.</_>
        <_>
          12 9 12 2 2.</_></rects>
      <tilted>0</tilted></_>
    <_>
      <rects>
        <_>
          0 12 1 2 -1.</_>
        <_>
          0 13 1 1 2.</_></rects>
      <tilted>0</tilted></_>
    <_>
      <rects>
        <_>
          0 13 23 10 -1.</_>
        <_>
          0 18 23 5 2.</_></rects>
      <tilted>0</tilted></_>
    <_>
      <rects>
        <_>
          0 16 24 8 -1.</_>
        <_>
          12 16 12 8 2.</_></rects>
      <tilted>0</tilted></_>
    <_>
      <rects>
        <_>
          1 0 3 2 -1.</_>
        <_>
          2 0 1 2 3.</_></rects>
      <tilted>0</tilted></_>
    <_>
      <rects>
        <_>
          1 2 2 2 -1.</_>
        <_>
          2 2 1 2 2.</_></rects>
      <tilted>0</tilted></_>
    <_>
      <rects>
        <_>
          1 2 12 8 -1.</_>
        <_>
          1 2 6 4 2.</_>
        <_>
          7 6 6 4 2.</_></rects>
      <tilted>0</tilted></_>
    <_>
      <rects>
        <_>
          1 4 2 2 -1.</_>
        <_>
          1 5 2 1 2.</_></rects>
      <tilted>0</tilted></_>
    <_>
      <rects>
        <_>
          1 5 5 8 -1.</_>
        <_>
          1 9 5 4 2.</_></rects>
      <tilted>0</tilted></_>
    <_>
      <rects>
        <_>
          1 6 9 3 -1.</_>
        <_>
          4 6 3 3 3.</_></rects>
      <tilted>0</tilted></_>
    <_>
      <rects>
        <_>
          1 9 11 6 -1.</_>
        <_>
          1 12 11 3 2.</_></rects>
      <tilted>0</tilted></_>
    <_>
      <rects>
        <_>
          1 21 22 3 -1.</_>
        <_>
          12 21 11 3 2.</_></rects>
      <tilted>0</tilted></_>
    <_>
      <rects>
        <_>
          2 0 22 4 -1.</_>
        <_>
          13 0 11 4 2.</_></rects>
      <tilted>0</tilted></_>
    <_>
      <rects>
        <_>
          2 2 6 21 -1.</_>
        <_>
          5 2 3 21 2.</_></rects>
      <tilted>0</tilted></_>
    <_>
      <rects>
        <_>
          2 2 10 8 -1.</_>
        <_>
          2 2 5 4 2.</_>
        <_>
          7 6 5 4 2.</_></rects>
      <tilted>0</tilted></_>
    <_>
      <rects>
        <_>
          2 2 21 8 -1.</_>
        <_>
          9 2 7 8 3.</_></rects>
      <tilted>0</tilted></_>
    <_>
      <rects>
        <_>
          2 5 6 13 -1.</_>
        <_>
          4 5 2 13 3.</_></rects>
      <tilted>0</tilted></_>
    <_>
      <rects>
        <_>
          2 9 3 2 -1.</_>
        <_>
          2 10 3 1 2.</_></rects>
      <tilted>0</tilted></_>
    <_>
      <rects>
        <_>
          2 11 10 13 -1.</_>
        <_>
          7 11 5 13 2.</_></rects>
      <tilted>0</tilted></_>
    <_>
      <rects>
        <_>
          3 6 6 12 -1.</_>
        <_>
          5 6 2 12 3.</_></rects>
      <tilted>0</tilted></_>
    <_>
      <rects>
        <_>
          3 10 16 9 -1.</_>
        <_>
          3 13 16 3 3.</_></rects>
      <tilted>0</tilted></_>
    <_>
      <rects>
        <_>
          3 13 9 7 -1.</_>
        <_>
          6 13 3 7 3.</_></rects>
      <tilted>0</tilted></_>
    <_>
      <rects>
        <_>
          4 1 8 8 -1.</_>
        <_>
          4 1 4 4 2.</_>
        <_>
          8 5 4 4 2.</_></rects>
      <tilted>0</tilted></_>
    <_>
      <rects>
        <_>
          4 2 16 1 -1.</_>
        <_>
          12 2 8 1 2.</_></rects>
      <tilted>0</tilted></_>
    <_>
      <rects>
        <_>
          4 2 14 4 -1.</_>
        <_>
          4 4 14 2 2.</_></rects>
      <tilted>0</tilted></_>
    <_>
      <rects>
        <_>
          4 4 8 20 -1.</_>
        <_>
          8 4 4 20 2.</_></rects>
      <tilted>0</tilted></_>
    <_>
      <rects>
        <_>
          4 5 6 11 -1.</_>
        <_>
          6 5 2 11 3.</_></rects>
      <tilted>0</tilted></_>
    <_>
      <rects>
        <_>
          4 5 4 17 -1.</_>
        <_>
          6 5 2 17 2.</_></rects>
      <tilted>0</tilted></_>
    <_>
      <rects>
        <_>
          4 7 2 12 -1.</_>
        <_>
          5 7 1 12 2.</_></rects>
      <tilted>0</tilted></_>
    <_>
      <rects>
        <_>
          4 8 13 3 -1.</_>
        <_>
          4 9 13 1 3.</_></rects>
      <tilted>0</tilted></_>
    <_>
      <rects>
        <_>
          4 10 2 3 -1.</_>
        <_>
          5 10 1 3 2.</_></rects>
      <tilted>0</tilted></_>
    <_>
      <rects>
        <_>
          4 10 7 10 -1.</_>
        <_>
          4 15 7 5 2.</_></rects>
      <tilted>0</tilted></_>
    <_>
      <rects>
        <_>
          4 10 12 12 -1.</_>
        <_>
          4 14 12 4 3.</_></rects>
      <tilted>0</tilted></_>
    <_>
      <rects>
        <_>
          4 10 14 9 -1.</_>
        <_>
          4 13 14 3 3.</_></rects>
      <tilted>0</tilted></_>
    <_>
      <rects>
        <_>
          4 11 16 12 -1.</_>
        <_>
          4 15 16 4 3.</_></rects>
      <tilted>0</tilted></_>
    <_>
      <rects>
        <_>
          4 13 12 4 -1.</_>
        <_>
          8 13 4 4 3.</_></rects>
      <tilted>0</tilted></_>
    <_>
      <rects>
        <_>
          5 0 13 4 -1.</_>
        <_>
          5 2 13 2 2.</_></rects>
      <tilted>0</tilted></_>
    <_>
      <rects>
        <_>
          5 6 12 10 -1.</_>
        <_>
          5 6 6 5 2.</_>
        <_>
          11 11 6 5 2.</_></rects>
      <tilted>0</tilted></_>
    <_>
      <rects>
        <_>
          5 7 11 9 -1.</_>
        <_>
          5 10 11 3 3.</_></rects>
      <tilted>0</tilted></_>
    <_>
      <rects>
        <_>
          5 9 9 6 -1.</_>
        <_>
          5 11 9 2 3.</_></rects>
      <tilted>0</tilted></_>
    <_>
      <rects>
        <_>
          5 9 10 6 -1.</_>
        <_>
          5 11 10 2 3.</_></rects>
      <tilted>0</tilted></_>
    <_>
      <rects>
        <_>
          5 9 13 8 -1.</_>
        <_>
          5 13 13 4 2.</_></rects>
      <tilted>0</tilted></_>
    <_>
      <rects>
        <_>
          5 9 14 15 -1.</_>
        <_>
          5 14 14 5 3.</_></rects>
      <tilted>0</tilted></_>
    <_>
      <rects>
        <_>
          5 10 14 9 -1.</_>
        <_>
          5 13 14 3 3.</_></rects>
      <tilted>0</tilted></_>
    <_>
      <rects>
        <_>
          5 12 10 12 -1.</_>
        <_>
          5 16 10 4 3.</_></rects>
      <tilted>0</tilted></_>
    <_>
      <rects>
        <_>
          6 2 9 6 -1.</_>
        <_>
          6 4 9 2 3.</_></rects>
      <tilted>0</tilted></_>
    <_>
      <rects>
        <_>
          6 5 10 6 -1.</_>
        <_>
          6 7 10 2 3.</_></rects>
      <tilted>0</tilted></_>
    <_>
      <rects>
        <_>
          6 7 3 3 -1.</_>
        <_>
          6 8 3 1 3.</_></rects>
      <tilted>0</tilted></_>
    <_>
      <rects>
        <_>
          6 7 12 6 -1.</_>
        <_>
          10 7 4 6 3.</_></rects>
      <tilted>0</tilted></_>
    <_>
      <rects>
        <_>
          6 7 7 6 -1.</_>
        <_>
          6 9 7 2 3.</_></rects>
      <tilted>0</tilted></_>
    <_>
      <rects>
        <_>
          6 7 12 12 -1.</_>
        <_>
          6 11 12 4 3.</_></rects>
      <tilted>0</tilted></_>
    <_>
      <rects>
        <_>
          6 8 12 3 -1.</_>
        <_>
          10 8 4 3 3.</_></rects>
      <tilted>0</tilted></_>
    <_>
      <rects>
        <_>
          6 10 12 12 -1.</_>
        <_>
          6 14 12 4 3.</_></rects>
      <tilted>0</tilted></_>
    <_>
      <rects>
        <_>
          7 0 9 6 -1.</_>
        <_>
          7 2 9 2 3.</_></rects>
      <tilted>0</tilted></_>
    <_>
      <rects>
        <_>
          7 0 11 9 -1.</_>
        <_>
          7 3 11 3 3.</_></rects>
      <tilted>0</tilted></_>
    <_>
      <rects>
        <_>
          7 2 4 4 -1.</_>
        <_>
          7 2 2 2 2.</_>
        <_>
          9 4 2 2 2.</_></rects>
      <tilted>0</tilted></_>
    <_>
      <rects>
        <_>
          7 2 9 17 -1.</_>
        <_>
          10 2 3 17 3.</_></rects>
      <tilted>0</tilted></_>
    <_>
      <rects>
        <_>
          7 8 10 9 -1.</_>
        <_>
          7 11 10 3 3.</_></rects>
      <tilted>0</tilted></_>
    <_>
      <rects>
        <_>
          7 9 6 4 -1.</_>
        <_>
          7 11 6 2 2.</_></rects>
      <tilted>0</tilted></_>
    <_>
      <rects>
        <_>
          7 10 12 3 -1.</_>
        <_>
          11 10 4 3 3.</_></rects>
      <tilted>0</tilted></_>
    <_>
      <rects>
        <_>
          7 10 11 6 -1.</_>
        <_>
          7 12 11 2 3.</_></rects>
      <tilted>0</tilted></_>
    <_>
      <rects>
        <_>
          7 11 10 12 -1.</_>
        <_>
          7 15 10 4 3.</_></rects>
      <tilted>0</tilted></_>
    <_>
      <rects>
        <_>
          7 13 3 3 -1.</_>
        <_>
          8 13 1 3 3.</_></rects>
      <tilted>0</tilted></_>
    <_>
      <rects>
        <_>
          7 15 6 6 -1.</_>
        <_>
          7 17 6 2 3.</_></rects>
      <tilted>0</tilted></_>
    <_>
      <rects>
        <_>
          8 0 16 16 -1.</_>
        <_>
          8 0 8 8 2.</_>
        <_>
          16 8 8 8 2.</_></rects>
      <tilted>0</tilted></_>
    <_>
      <rects>
        <_>
          8 1 8 2 -1.</_>
        <_>
          8 2 8 1 2.</_></rects>
      <tilted>0</tilted></_>
    <_>
      <rects>
        <_>
          8 2 16 12 -1.</_>
        <_>
          8 8 16 6 2.</_></rects>
      <tilted>0</tilted></_>
    <_>
      <rects>
        <_>
          8 6 9 9 -1.</_>
        <_>
          11 6 3 9 3.</_></rects>
      <tilted>0</tilted></_>
    <_>
      <rects>
        <_>
          8 6 8 9 -1.</_>
        <_>
          8 9 8 3 3.</_></rects>
      <tilted>0</tilted></_>
    <_>
      <rects>
        <_>
          8 8 8 3 -1.</_>
        <_>
          8 9 8 1 3.</_></rects>
      <tilted>0</tilted></_>
    <_>
      <rects>
        <_>
          8 9 7 3 -1.</_>
        <_>
          8 10 7 1 3.</_></rects>
      <tilted>0</tilted></_>
    <_>
      <rects>
        <_>
          8 9 8 6 -1.</_>
        <_>
          8 12 8 3 2.</_></rects>
      <tilted>0</tilted></_>
    <_>
      <rects>
        <_>
          8 10 8 10 -1.</_>
        <_>
          8 15 8 5 2.</_></rects>
      <tilted>0</tilted></_>
    <_>
      <rects>
        <_>
          8 11 7 9 -1.</_>
        <_>
          8 14 7 3 3.</_></rects>
      <tilted>0</tilted></_>
    <_>
      <rects>
        <_>
          8 14 11 10 -1.</_>
        <_>
          8 19 11 5 2.</_></rects>
      <tilted>0</tilted></_>
    <_>
      <rects>
        <_>
          8 17 1 2 -1.</_>
        <_>
          8 18 1 1 2.</_></rects>
      <tilted>0</tilted></_>
    <_>
      <rects>
        <_>
          9 0 7 9 -1.</_>
        <_>
          9 3 7 3 3.</_></rects>
      <tilted>0</tilted></_>
    <_>
      <rects>
        <_>
          9 0 7 20 -1.</_>
        <_>
          9 10 7 10 2.</_></rects>
      <tilted>0</tilted></_>
    <_>
      <rects>
        <_>
          9 1 12 8 -1.</_>
        <_>
          9 1 6 4 2.</_>
        <_>
          15 5 6 4 2.</_></rects>
      <tilted>0</tilted></_>
    <_>
      <rects>
        <_>
          9 2 6 18 -1.</_>
        <_>
          9 2 3 9 2.</_>
        <_>
          12 11 3 9 2.</_></rects>
      <tilted>0</tilted></_>
    <_>
      <rects>
        <_>
          9 6 6 7 -1.</_>
        <_>
          11 6 2 7 3.</_></rects>
      <tilted>0</tilted></_>
    <_>
      <rects>
        <_>
          9 7 5 6 -1.</_>
        <_>
          9 9 5 2 3.</_></rects>
      <tilted>0</tilted></_>
    <_>
      <rects>
        <_>
          9 7 7 6 -1.</_>
        <_>
          9 9 7 2 3.</_></rects>
      <tilted>0</tilted></_>
    <_>
      <rects>
        <_>
          9 9 6 6 -1.</_>
        <_>
          9 11 6 2 3.</_></rects>
      <tilted>0</tilted></_>
    <_>
      <rects>
        <_>
          9 9 6 15 -1.</_>
        <_>
          9 14 6 5 3.</_></rects>
      <tilted>0</tilted></_>
    <_>
      <rects>
        <_>
          9 9 11 15 -1.</_>
        <_>
          9 14 11 5 3.</_></rects>
      <tilted>0</tilted></_>
    <_>
      <rects>
        <_>
          9 13 6 2 -1.</_>
        <_>
          9 14 6 1 2.</_></rects>
      <tilted>0</tilted></_>
    <_>
      <rects>
        <_>
          9 14 3 2 -1.</_>
        <_>
          10 14 1 2 3.</_></rects>
      <tilted>0</tilted></_>
    <_>
      <rects>
        <_>
          9 15 2 2 -1.</_>
        <_>
          9 16 2 1 2.</_></rects>
      <tilted>0</tilted></_>
    <_>
      <rects>
        <_>
          9 18 2 2 -1.</_>
        <_>
          9 19 2 1 2.</_></rects>
      <tilted>0</tilted></_>
    <_>
      <rects>
        <_>
          9 18 2 6 -1.</_>
        <_>
          9 21 2 3 2.</_></rects>
      <tilted>0</tilted></_>
    <_>
      <rects>
        <_>
          10 0 1 6 -1.</_>
        <_>
          10 2 1 2 3.</_></rects>
      <tilted>0</tilted></_>
    <_>
      <rects>
        <_>
          10 0 9 1 -1.</_>
        <_>
          13 0 3 1 3.</_></rects>
      <tilted>0</tilted></_>
    <_>
      <rects>
        <_>
          10 0 7 3 -1.</_>
        <_>
          10 1 7 1 3.</_></rects>
      <tilted>0</tilted></_>
    <_>
      <rects>
        <_>
          10 3 5 21 -1.</_>
        <_>
          10 10 5 7 3.</_></rects>
      <tilted>0</tilted></_>
    <_>
      <rects>
        <_>
          10 5 6 13 -1.</_>
        <_>
          12 5 2 13 3.</_></rects>
      <tilted>0</tilted></_>
    <_>
      <rects>
        <_>
          10 6 12 15 -1.</_>
        <_>
          14 6 4 15 3.</_></rects>
      <tilted>0</tilted></_>
    <_>
      <rects>
        <_>
          10 7 4 6 -1.</_>
        <_>
          10 9 4 2 3.</_></rects>
      <tilted>0</tilted></_>
    <_>
      <rects>
        <_>
          10 9 3 2 -1.</_>
        <_>
          10 10 3 1 2.</_></rects>
      <tilted>0</tilted></_>
    <_>
      <rects>
        <_>
          10 10 8 9 -1.</_>
        <_>
          10 13 8 3 3.</_></rects>
      <tilted>0</tilted></_>
    <_>
      <rects>
        <_>
          10 13 2 4 -1.</_>
        <_>
          10 15 2 2 2.</_></rects>
      <tilted>0</tilted></_>
    <_>
      <rects>
        <_>
          10 13 6 2 -1.</_>
        <_>
          12 13 2 2 3.</_></rects>
      <tilted>0</tilted></_>
    <_>
      <rects>
        <_>
          10 15 2 1 -1.</_>
        <_>
          11 15 1 1 2.</_></rects>
      <tilted>0</tilted></_>
    <_>
      <rects>
        <_>
          10 15 3 2 -1.</_>
        <_>
          10 16 3 1 2.</_></rects>
      <tilted>0</tilted></_>
    <_>
      <rects>
        <_>
          10 16 2 1 -1.</_>
        <_>
          11 16 1 1 2.</_></rects>
      <tilted>0</tilted></_>
    <_>
      <rects>
        <_>
          11 2 10 6 -1.</_>
        <_>
          11 2 5 3 2.</_>
        <_>
          16 5 5 3 2.</_></rects>
      <tilted>0</tilted></_>
    <_>
      <rects>
        <_>
          11 2 13 10 -1.</_>
        <_>
          11 7 13 5 2.</_></rects>
      <tilted>0</tilted></_>
    <_>
      <rects>
        <_>
          11 3 2 15 -1.</_>
        <_>
          11 8 2 5 3.</_></rects>
      <tilted>0</tilted></_>
    <_>
      <rects>
        <_>
          11 4 5 14 -1.</_>
        <_>
          11 11 5 7 2.</_></rects>
      <tilted>0</tilted></_>
    <_>
      <rects>
        <_>
          11 9 4 6 -1.</_>
        <_>
          11 11 4 2 3.</_></rects>
      <tilted>0</tilted></_>
    <_>
      <rects>
        <_>
          11 11 2 2 -1.</_>
        <_>
          11 12 2 1 2.</_></rects>
      <tilted>0</tilted></_>
    <_>
      <rects>
        <_>
          11 13 12 10 -1.</_>
        <_>
          11 18 12 5 2.</_></rects>
      <tilted>0</tilted></_>
    <_>
      <rects>
        <_>
          11 14 2 1 -1.</_>
        <_>
          12 14 1 1 2.</_></rects>
      <tilted>0</tilted></_>
    <_>
      <rects>
        <_>
          11 14 1 4 -1.</_>
        <_>
          11 16 1 2 2.</_></rects>
      <tilted>0</tilted></_>
    <_>
      <rects>
        <_>
          11 14 3 3 -1.</_>
        <_>
          12 14 1 3 3.</_></rects>
      <tilted>0</tilted></_>
    <_>
      <rects>
        <_>
          11 15 1 4 -1.</_>
        <_>
          11 17 1 2 2.</_></rects>
      <tilted>0</tilted></_>
    <_>
      <rects>
        <_>
          11 15 3 2 -1.</_>
        <_>
          12 15 1 2 3.</_></rects>
      <tilted>0</tilted></_>
    <_>
      <rects>
        <_>
          11 15 4 1 -1.</_>
        <_>
          13 15 2 1 2.</_></rects>
      <tilted>0</tilted></_>
    <_>
      <rects>
        <_>
          11 15 4 3 -1.</_>
        <_>
          13 15 2 3 2.</_></rects>
      <tilted>0</tilted></_>
    <_>
      <rects>
        <_>
          11 16 3 2 -1.</_>
        <_>
          11 17 3 1 2.</_></rects>
      <tilted>0</tilted></_>
    <_>
      <rects>
        <_>
          12 2 8 4 -1.</_>
        <_>
          12 2 4 2 2.</_>
        <_>
          16 4 4 2 2.</_></rects>
      <tilted>0</tilted></_>
    <_>
      <rects>
        <_>
          12 4 6 14 -1.</_>
        <_>
          14 4 2 14 3.</_></rects>
      <tilted>0</tilted></_>
    <_>
      <rects>
        <_>
          12 4 11 10 -1.</_>
        <_>
          12 9 11 5 2.</_></rects>
      <tilted>0</tilted></_>
    <_>
      <rects>
        <_>
          12 6 2 12 -1.</_>
        <_>
          12 10 2 4 3.</_></rects>
      <tilted>0</tilted></_>
    <_>
      <rects>
        <_>
          12 7 2 8 -1.</_>
        <_>
          12 11 2 4 2.</_></rects>
      <tilted>0</tilted></_>
    <_>
      <rects>
        <_>
          12 11 3 2 -1.</_>
        <_>
          12 12 3 1 2.</_></rects>
      <tilted>0</tilted></_>
    <_>
      <rects>
        <_>
          12 13 2 1 -1.</_>
        <_>
          13 13 1 1 2.</_></rects>
      <tilted>0</tilted></_>
    <_>
      <rects>
        <_>
          12 13 2 3 -1.</_>
        <_>
          13 13 1 3 2.</_></rects>
      <tilted>0</tilted></_>
    <_>
      <rects>
        <_>
          12 14 3 1 -1.</_>
        <_>
          13 14 1 1 3.</_></rects>
      <tilted>0</tilted></_>
    <_>
      <rects>
        <_>
          12 15 2 1 -1.</_>
        <_>
          13 15 1 1 2.</_></rects>
      <tilted>0</tilted></_>
    <_>
      <rects>
        <_>
          12 15 2 2 -1.</_>
        <_>
          13 15 1 2 2.</_></rects>
      <tilted>0</tilted></_>
    <_>
      <rects>
        <_>
          12 15 2 3 -1.</_>
        <_>
          13 15 1 3 2.</_></rects>
      <tilted>0</tilted></_>
    <_>
      <rects>
        <_>
          13 1 1 16 -1.</_>
        <_>
          13 9 1 8 2.</_></rects>
      <tilted>0</tilted></_>
    <_>
      <rects>
        <_>
          13 4 10 2 -1.</_>
        <_>
          18 4 5 2 2.</_></rects>
      <tilted>0</tilted></_>
    <_>
      <rects>
        <_>
          13 14 6 2 -1.</_>
        <_>
          15 14 2 2 3.</_></rects>
      <tilted>0</tilted></_>
    <_>
      <rects>
        <_>
          13 15 1 2 -1.</_>
        <_>
          13 16 1 1 2.</_></rects>
      <tilted>0</tilted></_>
    <_>
      <rects>
        <_>
          14 0 8 4 -1.</_>
        <_>
          14 0 4 2 2.</_>
        <_>
          18 2 4 2 2.</_></rects>
      <tilted>0</tilted></_>
    <_>
      <rects>
        <_>
          14 3 2 16 -1.</_>
        <_>
          15 3 1 16 2.</_></rects>
      <tilted>0</tilted></_>
    <_>
      <rects>
        <_>
          14 11 6 5 -1.</_>
        <_>
          16 11 2 5 3.</_></rects>
      <tilted>0</tilted></_>
    <_>
      <rects>
        <_>
          14 17 4 1 -1.</_>
        <_>
          16 17 2 1 2.</_></rects>
      <tilted>0</tilted></_>
    <_>
      <rects>
        <_>
          15 3 6 6 -1.</_>
        <_>
          15 3 3 3 2.</_>
        <_>
          18 6 3 3 2.</_></rects>
      <tilted>0</tilted></_>
    <_>
      <rects>
        <_>
          15 14 9 6 -1.</_>
        <_>
          18 14 3 6 3.</_></rects>
      <tilted>0</tilted></_>
    <_>
      <rects>
        <_>
          16 5 4 4 -1.</_>
        <_>
          18 5 2 4 2.</_></rects>
      <tilted>0</tilted></_>
    <_>
      <rects>
        <_>
          16 8 6 4 -1.</_>
        <_>
          18 8 2 4 3.</_></rects>
      <tilted>0</tilted></_>
    <_>
      <rects>
        <_>
          17 3 1 18 -1.</_>
        <_>
          17 12 1 9 2.</_></rects>
      <tilted>0</tilted></_>
    <_>
      <rects>
        <_>
          18 6 6 10 -1.</_>
        <_>
          21 6 3 10 2.</_></rects>
      <tilted>0</tilted></_>
    <_>
      <rects>
        <_>
          18 9 2 10 -1.</_>
        <_>
          19 9 1 10 2.</_></rects>
      <tilted>0</tilted></_>
    <_>
      <rects>
        <_>
          18 12 2 2 -1.</_>
        <_>
          18 12 1 1 2.</_>
        <_>
          19 13 1 1 2.</_></rects>
      <tilted>0</tilted></_>
    <_>
      <rects>
        <_>
          19 5 5 8 -1.</_>
        <_>
          19 9 5 4 2.</_></rects>
      <tilted>0</tilted></_>
    <_>
      <rects>
        <_>
          19 21 4 2 -1.</_>
        <_>
          19 22 4 1 2.</_></rects>
      <tilted>0</tilted></_>
    <_>
      <rects>
        <_>
          20 0 2 1 -1.</_>
        <_>
          21 0 1 1 2.</_></rects>
      <tilted>0</tilted></_>
    <_>
      <rects>
        <_>
          21 2 1 3 -1.</_>
        <_>
          21 3 1 1 3.</_></rects>
      <tilted>0</tilted></_>
    <_>
      <rects>
        <_>
          22 0 2 4 -1.</_>
        <_>
          23 0 1 4 2.</_></rects>
      <tilted>0</tilted></_>
    <_>
      <rects>
        <_>
          22 1 2 4 -1.</_>
        <_>
          22 3 2 2 2.</_></rects>
      <tilted>0</tilted></_>
    <_>
      <rects>
        <_>
          22 4 1 20 -1.</_>
        <_>
          22 14 1 10 2.</_></rects>
      <tilted>0</tilted></_>
    <_>
      <rects>
        <_>
          23 21 1 2 -1.</_>
        <_>
          23 22 1 1 2.</_></rects>
      <tilted>0</tilted></_></features></cascade>
</opencv_storage>
